Language model created by QuickLM on Wed Mar  7 04:26:17 EST 2018
Copyright (c) 1996-2010 Carnegie Mellon University and Alexander I. Rudnicky

The model is in standard ARPA format, designed by Doug Paul while he was at MITRE.

The code that was used to produce this language model is available in Open Source.
Please visit http://www.speech.cs.cmu.edu/tools/ for more information

The (fixed) discount mass is 0.5. The backoffs are computed using the ratio method.
This model based on a corpus of 22 sentences and 26 words

\data\
ngram 1=26
ngram 2=46
ngram 3=29

\1-grams:
-0.8219 </s> -0.3010
-0.8219 <s> -0.2301
-2.1644 ABBASSA -0.2301
-1.8633 AFFERRA -0.2301
-2.1644 ANTIRUOTA -0.2301
-2.1644 APRI -0.2301
-2.1644 AVANTI -0.2301
-2.1644 CASA -0.2301
-2.1644 FACCIA -0.2301
-2.1644 GRANDE -0.2301
-2.1644 INDIETRO -0.2301
-2.1644 LATO -0.2950
-2.1644 LONTANO -0.2301
-2.1644 MEDIO -0.2301
-2.1644 PICCOLO -0.2301
-1.4654 POSIZIONE -0.2859
-2.1644 PRIMA -0.2301
-2.1644 PRONTO -0.2301
-2.1644 RUOTA -0.2301
-2.1644 SECONDA -0.2301
-2.1644 SOLLEVA -0.2301
-2.1644 SOPRA -0.2950
-2.1644 STOP -0.2301
-2.1644 STRINGI -0.2301
-2.1644 TERZA -0.2301
-2.1644 VICINO -0.2301

\2-grams:
-1.6435 <s> ABBASSA 0.0000
-1.6435 <s> ANTIRUOTA 0.0000
-1.6435 <s> APRI 0.0000
-1.6435 <s> AVANTI 0.0000
-1.6435 <s> GRANDE 0.0000
-1.6435 <s> INDIETRO 0.0000
-1.6435 <s> LATO 0.0000
-1.6435 <s> LONTANO 0.0000
-1.6435 <s> MEDIO 0.0000
-1.6435 <s> PICCOLO 0.0000
-0.9445 <s> POSIZIONE 0.0000
-1.6435 <s> PRONTO 0.0000
-1.6435 <s> RUOTA 0.0000
-1.6435 <s> SOLLEVA 0.0000
-1.6435 <s> SOPRA 0.0000
-1.6435 <s> STOP 0.0000
-1.6435 <s> STRINGI 0.0000
-1.6435 <s> VICINO 0.0000
-0.3010 ABBASSA </s> -0.3010
-0.3010 AFFERRA </s> -0.3010
-0.3010 ANTIRUOTA </s> -0.3010
-0.3010 APRI </s> -0.3010
-0.3010 AVANTI </s> -0.3010
-0.3010 CASA </s> -0.3010
-0.3010 FACCIA </s> -0.3010
-0.3010 GRANDE </s> -0.3010
-0.3010 INDIETRO </s> -0.3010
-0.3010 LATO AFFERRA 0.0000
-0.3010 LONTANO </s> -0.3010
-0.3010 MEDIO </s> -0.3010
-0.3010 PICCOLO </s> -0.3010
-1.0000 POSIZIONE CASA 0.0000
-1.0000 POSIZIONE FACCIA 0.0000
-1.0000 POSIZIONE PRIMA 0.0000
-1.0000 POSIZIONE SECONDA 0.0000
-1.0000 POSIZIONE TERZA 0.0000
-0.3010 PRIMA </s> -0.3010
-0.3010 PRONTO </s> -0.3010
-0.3010 RUOTA </s> -0.3010
-0.3010 SECONDA </s> -0.3010
-0.3010 SOLLEVA </s> -0.3010
-0.3010 SOPRA AFFERRA 0.0000
-0.3010 STOP </s> -0.3010
-0.3010 STRINGI </s> -0.3010
-0.3010 TERZA </s> -0.3010
-0.3010 VICINO </s> -0.3010

\3-grams:
-0.3010 <s> ABBASSA </s>
-0.3010 <s> ANTIRUOTA </s>
-0.3010 <s> APRI </s>
-0.3010 <s> AVANTI </s>
-0.3010 <s> GRANDE </s>
-0.3010 <s> INDIETRO </s>
-0.3010 <s> LATO AFFERRA
-0.3010 <s> LONTANO </s>
-0.3010 <s> MEDIO </s>
-0.3010 <s> PICCOLO </s>
-1.0000 <s> POSIZIONE CASA
-1.0000 <s> POSIZIONE FACCIA
-1.0000 <s> POSIZIONE PRIMA
-1.0000 <s> POSIZIONE SECONDA
-1.0000 <s> POSIZIONE TERZA
-0.3010 <s> PRONTO </s>
-0.3010 <s> RUOTA </s>
-0.3010 <s> SOLLEVA </s>
-0.3010 <s> SOPRA AFFERRA
-0.3010 <s> STOP </s>
-0.3010 <s> STRINGI </s>
-0.3010 <s> VICINO </s>
-0.3010 LATO AFFERRA </s>
-0.3010 POSIZIONE CASA </s>
-0.3010 POSIZIONE FACCIA </s>
-0.3010 POSIZIONE PRIMA </s>
-0.3010 POSIZIONE SECONDA </s>
-0.3010 POSIZIONE TERZA </s>
-0.3010 SOPRA AFFERRA </s>

\end\
